<?xml version="1.0" encoding="UTF-8"?>
<!-- This network was created in GeNIe Academic, which can be used for academic teaching and research purposes only -->
<smile version="1.0" id="wine_1_" numsamples="10000" discsamples="10000">
	<nodes>
		<cpt id="group">
			<state id="State1" />
			<state id="State2" />
			<state id="State3" />
			<probabilities>0.3314606741573033 0.398876404494382 0.2696629213483146</probabilities>
		</cpt>
		<cpt id="Nonflavanoid_phenols">
			<state id="s1_below_0" />
			<state id="s2_0_0" />
			<state id="s3_0_0" />
			<state id="s4_0_up" />
			<parents>group</parents>
			<probabilities>0.3541666666666667 0.5541666666666667 0.08749999999999999 0.004166666666666667 0.2394366197183099 0.3661971830985916 0.2816901408450704 0.1126760563380282 0.125 0.125 0.4375 0.3125</probabilities>
		</cpt>
		<cpt id="OD280_OD315">
			<state id="s1_below_1" />
			<state id="s2_1_2" />
			<state id="s3_2_3" />
			<state id="s4_3_up" />
			<parents>Nonflavanoid_phenols group</parents>
			<probabilities>0.01136363636363636 0.01136363636363636 0.375 0.6022727272727273 0.01388888888888889 0.125 0.736111111111111 0.125 0.8928571428571428 0.03571428571428571 0.03571428571428571 0.03571428571428571 0.007352941176470588 0.03676470588235294 0.6544117647058824 0.3014705882352941 0.07692307692307693 0.2307692307692308 0.5 0.1923076923076923 0.6071428571428571 0.3214285714285714 0.03571428571428571 0.03571428571428571 0.04166666666666666 0.2083333333333333 0.7083333333333333 0.04166666666666666 0.0119047619047619 0.3928571428571428 0.5357142857142857 0.05952380952380952 0.875 0.1022727272727273 0.01136363636363636 0.01136363636363636 0.25 0.25 0.25 0.25 0.3611111111111111 0.4722222222222222 0.1388888888888889 0.02777777777777778 0.703125 0.265625 0.015625 0.015625</probabilities>
		</cpt>
		<cpt id="Flavanoids">
			<state id="s1_below_1" />
			<state id="s2_1_2" />
			<state id="s3_2_3" />
			<state id="s4_3_up" />
			<parents>OD280_OD315 group</parents>
			<probabilities>0.25 0.25 0.25 0.25 0.875 0.04166666666666666 0.04166666666666666 0.04166666666666666 0.9573170731707318 0.03048780487804878 0.006097560975609756 0.006097560975609756 0.08333333333333333 0.4166666666666666 0.4166666666666666 0.08333333333333333 0.25 0.7261904761904762 0.0119047619047619 0.0119047619047619 0.9166666666666666 0.02777777777777778 0.02777777777777778 0.02777777777777778 0.007142857142857143 0.2928571428571429 0.6642857142857143 0.03571428571428571 0.08333333333333333 0.7243589743589743 0.1858974358974359 0.00641025641025641 0.25 0.25 0.25 0.25 0.01041666666666667 0.3020833333333333 0.6770833333333333 0.01041666666666667 0.02777777777777778 0.4722222222222222 0.3611111111111111 0.1388888888888889 0.25 0.25 0.25 0.25</probabilities>
		</cpt>
		<cpt id="total_phenols">
			<state id="s1_below_1" />
			<state id="s2_1_2" />
			<state id="s3_2_3" />
			<state id="s4_3_up" />
			<parents>Flavanoids group</parents>
			<probabilities>0.25 0.25 0.25 0.25 0.5178571428571428 0.375 0.08928571428571427 0.01785714285714286 0.6302083333333333 0.3177083333333333 0.046875 0.005208333333333333 0.0131578947368421 0.3289473684210526 0.6447368421052632 0.0131578947368421 0.1063829787234043 0.5744680851063829 0.2765957446808511 0.0425531914893617 0.625 0.125 0.125 0.125 0.006097560975609756 0.006097560975609756 0.7865853658536586 0.201219512195122 0.02272727272727273 0.02272727272727273 0.6590909090909091 0.2954545454545455 0.25 0.25 0.25 0.25 0.125 0.125 0.125 0.625 0.125 0.125 0.125 0.625 0.25 0.25 0.25 0.25</probabilities>
		</cpt>
		<cpt id="proanthocyanins">
			<state id="s1_below_1" />
			<state id="s2_1_1" />
			<state id="s3_1_2" />
			<state id="s4_2_up" />
			<parents>total_phenols group</parents>
			<probabilities>0.25 0.25 0.25 0.25 0.1730769230769231 0.7884615384615385 0.01923076923076923 0.01923076923076923 0.6953125 0.2890625 0.0078125 0.0078125 0.03571428571428571 0.8928571428571428 0.03571428571428571 0.03571428571428571 0.2803030303030303 0.5530303030303031 0.1590909090909091 0.007575757575757576 0.453125 0.515625 0.015625 0.015625 0.005555555555555556 0.65 0.2722222222222223 0.07222222222222223 0.09523809523809523 0.5714285714285714 0.1904761904761905 0.1428571428571428 0.08333333333333333 0.08333333333333333 0.75 0.08333333333333333 0.025 0.425 0.425 0.125 0.03571428571428571 0.75 0.03571428571428571 0.1785714285714285 0.25 0.25 0.25 0.25</probabilities>
		</cpt>
		<cpt id="alcohol">
			<state id="s1_below_11" />
			<state id="s2_11_12" />
			<state id="s3_12_13" />
			<state id="s4_13_up" />
			<parents>proanthocyanins group</parents>
			<probabilities>0.25 0.25 0.25 0.25 0.2321428571428571 0.5178571428571428 0.2321428571428571 0.01785714285714286 0.008333333333333333 0.575 0.4083333333333333 0.008333333333333333 0.00625 0.05625 0.70625 0.23125 0.2445652173913044 0.6576086956521739 0.09239130434782608 0.005434782608695652 0.01388888888888889 0.1805555555555556 0.6805555555555555 0.125 0.01470588235294118 0.01470588235294118 0.3676470588235294 0.6029411764705882 0.325 0.425 0.225 0.025 0.08333333333333333 0.08333333333333333 0.4166666666666666 0.4166666666666666 0.05 0.05 0.45 0.45 0.45 0.45 0.05 0.05 0.25 0.25 0.25 0.25</probabilities>
		</cpt>
		<cpt id="ash">
			<state id="s1_below_1" />
			<state id="s2_1_2" />
			<state id="s3_2_2" />
			<state id="s4_2_up" />
			<parents>Nonflavanoid_phenols group</parents>
			<probabilities>0.01136363636363636 0.3295454545454545 0.6477272727272727 0.01136363636363636 0.2916666666666666 0.3472222222222222 0.3472222222222222 0.01388888888888889 0.03571428571428571 0.03571428571428571 0.8928571428571428 0.03571428571428571 0.007352941176470588 0.2426470588235294 0.6544117647058824 0.09558823529411764 0.04629629629629629 0.787037037037037 0.1574074074074074 0.009259259259259259 0.03571428571428571 0.1785714285714285 0.6071428571428571 0.1785714285714285 0.04166666666666666 0.04166666666666666 0.7083333333333333 0.2083333333333333 0.0119047619047619 0.25 0.6785714285714285 0.05952380952380952 0.01136363636363636 0.2386363636363636 0.7386363636363636 0.01136363636363636 0.25 0.25 0.25 0.25 0.02777777777777778 0.4722222222222222 0.25 0.25 0.015625 0.328125 0.640625 0.015625</probabilities>
		</cpt>
		<cpt id="malic_acid">
			<state id="s1_below_2" />
			<state id="s2_2_3" />
			<state id="s3_3_4" />
			<state id="s4_4_up" />
			<parents>ash group</parents>
			<probabilities>0.25 0.25 0.25 0.25 0.6071428571428571 0.1785714285714285 0.1785714285714285 0.03571428571428571 0.25 0.25 0.25 0.25 0.765625 0.015625 0.203125 0.015625 0.75 0.1666666666666667 0.05555555555555555 0.02777777777777778 0.1818181818181818 0.1818181818181818 0.5454545454545454 0.09090909090909091 0.7865853658536586 0.1280487804878049 0.07926829268292683 0.006097560975609756 0.6388888888888888 0.1574074074074074 0.1944444444444444 0.009259259259259259 0.1111111111111111 0.4722222222222222 0.25 0.1666666666666667 0.45 0.45 0.05 0.05 0.0625 0.8125 0.0625 0.0625 0.125 0.125 0.125 0.625</probabilities>
		</cpt>
		<cpt id="alcalinity_of_ash">
			<state id="s1_below_15" />
			<state id="s2_15_20" />
			<state id="s3_20_25" />
			<state id="s4_25_up" />
			<parents>ash group</parents>
			<probabilities>0.25 0.25 0.25 0.25 0.3214285714285714 0.6071428571428571 0.03571428571428571 0.03571428571428571 0.25 0.25 0.25 0.25 0.203125 0.765625 0.015625 0.015625 0.03378378378378379 0.6013513513513514 0.3581081081081081 0.006756756756756757 0.02083333333333333 0.7708333333333333 0.1875 0.02083333333333333 0.201219512195122 0.7134146341463415 0.07926829268292683 0.006097560975609756 0.009259259259259259 0.2685185185185185 0.6018518518518519 0.1203703703703704 0.006756756756756757 0.3040540540540541 0.6283783783783784 0.06081081081081081 0.05 0.45 0.45 0.05 0.0625 0.3125 0.0625 0.5625 0.125 0.125 0.625 0.125</probabilities>
		</cpt>
		<cpt id="magnesium">
			<state id="s1_below_93" />
			<state id="s2_93_116" />
			<state id="s3_116_139" />
			<state id="s4_139_up" />
			<parents>alcalinity_of_ash group</parents>
			<probabilities>0.1875 0.6041666666666666 0.1875 0.02083333333333333 0.5625 0.0625 0.3125 0.0625 0.25 0.25 0.25 0.25 0.05113636363636364 0.7556818181818182 0.1875 0.005681818181818182 0.4642857142857142 0.4642857142857142 0.007142857142857143 0.06428571428571428 0.4404761904761905 0.3928571428571428 0.1547619047619048 0.0119047619047619 0.04166666666666666 0.375 0.5416666666666666 0.04166666666666666 0.775 0.175 0.04166666666666666 0.008333333333333333 0.2685185185185185 0.6759259259259259 0.04629629629629629 0.009259259259259259 0.25 0.25 0.25 0.25 0.4 0.2 0.2 0.2 0.08333333333333333 0.4166666666666666 0.4166666666666666 0.08333333333333333</probabilities>
		</cpt>
		<cpt id="color_intensity">
			<state id="s1_below_4" />
			<state id="s2_4_7" />
			<state id="s3_7_10" />
			<state id="s4_10_up" />
			<parents>total_phenols group</parents>
			<probabilities>0.25 0.25 0.25 0.25 0.8653846153846154 0.09615384615384616 0.01923076923076923 0.01923076923076923 0.09677419354838709 0.4193548387096774 0.3548387096774194 0.1290322580645161 0.6071428571428571 0.3214285714285714 0.03571428571428571 0.03571428571428571 0.8560606060606061 0.1287878787878788 0.007575757575757576 0.007575757575757576 0.015625 0.390625 0.515625 0.078125 0.09444444444444444 0.8055555555555556 0.09444444444444444 0.005555555555555556 0.9204545454545455 0.05681818181818182 0.01136363636363636 0.01136363636363636 0.08333333333333333 0.08333333333333333 0.08333333333333333 0.75 0.025 0.625 0.325 0.025 0.4642857142857142 0.4642857142857142 0.03571428571428571 0.03571428571428571 0.25 0.25 0.25 0.25</probabilities>
		</cpt>
		<cpt id="hue">
			<state id="s1_below_0" />
			<state id="s2_0_1" />
			<state id="s3_1_1" />
			<state id="s4_1_up" />
			<parents>Nonflavanoid_phenols group</parents>
			<probabilities>0.01136363636363636 0.7840909090909091 0.1931818181818182 0.01136363636363636 0.125 0.2916666666666666 0.5694444444444444 0.01388888888888889 0.8928571428571428 0.03571428571428571 0.03571428571428571 0.03571428571428571 0.007352941176470588 0.5955882352941176 0.3897058823529412 0.007352941176470588 0.08333333333333333 0.6018518518518519 0.3055555555555555 0.009259259259259259 0.8928571428571428 0.03571428571428571 0.03571428571428571 0.03571428571428571 0.04166666666666666 0.04166666666666666 0.875 0.04166666666666666 0.05 0.55 0.25 0.15 0.7840909090909091 0.1931818181818182 0.01136363636363636 0.01136363636363636 0.25 0.25 0.25 0.25 0.02777777777777778 0.6944444444444444 0.25 0.02777777777777778 0.703125 0.265625 0.015625 0.015625</probabilities>
		</cpt>
		<cpt id="Proline">
			<state id="s1_below_628" />
			<state id="s2_628_979" />
			<state id="s3_979_1329" />
			<state id="s4_1329_up" />
			<parents>magnesium group</parents>
			<probabilities>0.05 0.05 0.8500000000000001 0.05 0.8693181818181819 0.1193181818181818 0.005681818181818182 0.005681818181818182 0.6029411764705882 0.3676470588235294 0.01470588235294118 0.01470588235294118 0.005813953488372093 0.1686046511627907 0.6569767441860465 0.1686046511627907 0.6195652173913043 0.358695652173913 0.0108695652173913 0.0108695652173913 0.4375 0.5446428571428571 0.008928571428571428 0.008928571428571428 0.01785714285714286 0.5178571428571428 0.4464285714285714 0.01785714285714286 0.5625 0.3125 0.0625 0.0625 0.375 0.5416666666666666 0.04166666666666666 0.04166666666666666 0.25 0.25 0.25 0.25 0.0625 0.5625 0.3125 0.0625 0.25 0.25 0.25 0.25</probabilities>
		</cpt>
	</nodes>
	<extensions>
		<genie version="1.0" app="GeNIe 3.0.6518.0 ACADEMIC" name="wine(1)">
			<node id="group">
				<name>group</name>
				<interior color="ffff80" />
				<outline color="000080" />
				<font color="000000" name="Arial" size="8" />
				<position>745 465 817 513</position>
			</node>
			<node id="alcohol">
				<name>alcohol</name>
				<interior color="e5f6f7" />
				<outline color="000080" />
				<font color="000000" name="Arial" size="8" />
				<position>920 465 992 513</position>
			</node>
			<node id="malic_acid">
				<name>malic_acid</name>
				<interior color="e5f6f7" />
				<outline color="000080" />
				<font color="000000" name="Arial" size="8" />
				<position>899 519 971 567</position>
			</node>
			<node id="ash">
				<name>ash</name>
				<interior color="e5f6f7" />
				<outline color="000080" />
				<font color="000000" name="Arial" size="8" />
				<position>844 561 916 609</position>
			</node>
			<node id="alcalinity_of_ash">
				<name>alcalinity_of_ash</name>
				<interior color="e5f6f7" />
				<outline color="000080" />
				<font color="000000" name="Arial" size="8" />
				<position>766 580 838 628</position>
			</node>
			<node id="magnesium">
				<name>magnesium</name>
				<interior color="e5f6f7" />
				<outline color="000080" />
				<font color="000000" name="Arial" size="8" />
				<position>683 574 755 622</position>
			</node>
			<node id="total_phenols">
				<name>total_phenols</name>
				<interior color="e5f6f7" />
				<outline color="000080" />
				<font color="000000" name="Arial" size="8" />
				<position>615 542 687 590</position>
			</node>
			<node id="Flavanoids">
				<name>Flavanoids</name>
				<interior color="e5f6f7" />
				<outline color="000080" />
				<font color="000000" name="Arial" size="8" />
				<position>747 175 819 223</position>
			</node>
			<node id="Nonflavanoid_phenols">
				<name>Nonflavanoid phenols</name>
				<interior color="e5f6f7" />
				<outline color="000080" />
				<font color="000000" name="Arial" size="8" />
				<position>589 259 661 307</position>
			</node>
			<node id="proanthocyanins">
				<name>proanthocyanins</name>
				<interior color="e5f6f7" />
				<outline color="000080" />
				<font color="000000" name="Arial" size="8" />
				<position>281 392 353 440</position>
			</node>
			<node id="color_intensity">
				<name>color_intensity</name>
				<interior color="e5f6f7" />
				<outline color="000080" />
				<font color="000000" name="Arial" size="8" />
				<position>349 191 421 239</position>
			</node>
			<node id="hue">
				<name>hue</name>
				<interior color="e5f6f7" />
				<outline color="000080" />
				<font color="000000" name="Arial" size="8" />
				<position>766 350 838 398</position>
			</node>
			<node id="OD280_OD315">
				<name>OD280/OD315</name>
				<interior color="e5f6f7" />
				<outline color="000080" />
				<font color="000000" name="Arial" size="8" />
				<position>844 369 916 417</position>
			</node>
			<node id="Proline">
				<name>Proline</name>
				<interior color="e5f6f7" />
				<outline color="000080" />
				<font color="000000" name="Arial" size="8" />
				<position>899 411 971 459</position>
			</node>
			<textbox>
				<caption>Input file: wine(1).txt\nData rows: 178\nElapsed time: 0.469s\n\nLearning algorithm: Tree Augmented Naive Bayes\nAlgorithm parameters:\nClass variable: group\nSeed: 0\nMax search time: 0\n\nEM Log Likelihood: -1959.98</caption>
				<font color="000000" name="Arial" size="8" />
				<position>10 322 247 476</position>
			</textbox>
		</genie>
	</extensions>
</smile>
